[0.010201221234574169, 0.009757133090498376, 0.003351983970604079, 0.01763481636782142, 0.020522850494559628, 0.004737256061802968, 0.012151094693492424, 0.15320881924830976, 0.10126082468403792, 0.06376527966303494, 0.10606969269412082, 0.00399433461837755, 0.009534625102813358, -1.672884434518491e-13, -0.02697412217475629, -0.022914823226543948, -9.073257535157253e-14, 0.01950834348154475, 0.004909189417836422, 0.0757210438747773, -0.06824370959788766, -0.1144874328021624, 0.10462227572304601, 0.01970888548437489, 0.008309277519141643, 8.045547934268159e-14, 0.002461159732200182, 0.008199741375076166, 1.9271061908056475e-13, 0.019420541374507796, 0.000804172793686569, 0.11181542230345415, -0.07449438804696062, -0.11304207813121156, 0.15380425038742093, 0.014426022544253974, 0.011802990078954011, 0.13997031690244768, 0.15645557466464066, 0.18478718898922078, 0.1485193108654693, 0.020760603852657118, 0.007399490378619702, 0.002204891941473379, 3.2473299748902082e-06, 0.0004979447815562296, 0.014104595182188373, 0.00041337387433283457]
[0.0007819413876192574, 0.0003484425469495525, 0.019608579794890783, 0.006749851884696539, 0.01719905704567533, 0.015433132867397644, 0.007184605036759534, -0.09126525978578322, -0.11584156807818476, 0.07332920167654974, -0.12087255858066644, 0.0054954194385695545, 0.005523026628455684, 4.136872826843905e-12, 0.20831805326901112, 0.19880571479802772, 2.239004714423063e-12, 0.01291807791488851, 0.00974899520297038, -0.046350134359956635, 0.14049394450803093, 0.3502744383115416, -0.13421671968712312, 0.011417984824090946, 4.080211233304052e-05, -2.023967555457237e-12, 0.007611936842294442, 0.22664132171380405, -4.720731210843441e-12, 0.01116025316050954, 0.011304210987972095, -0.2259080051759384, 0.04630325729710808, 0.22595488223730506, -0.10190147836230683, 0.004381351107270957, 0.011970813897579905, -0.07341729086490413, -0.07033328389783422, -0.03347458356635053, -0.059748319317008636, 0.002834636879033505, 0.009047539033769947, 0.007025184691705033, 0.003755013231806307, 0.017249522972709062, 0.012379669518928708, 0.015614184069364297]
[0.0022914129582406045, 0.0079905742702644, 0.01928915800985675, 0.007416641101171048, 0.02082837487851485, 0.006338080517502814, 0.017142017890328053, 0.16737543295963475, 0.21726919841853587, 0.0354079146607506, 0.22257392834798245, 0.00770754575715941, 0.011768294810316599, -5.320349420966503e-11, -0.17221987659083252, -0.1699304767347316, -2.8719409780973732e-11, 0.0025905226010331053, 0.011827709406946598, -0.012233911763149233, 0.08007798970581242, -0.09995591079833713, 0.2185304369494056, 0.010817305492659078, 0.0016781908082463433, 2.6314516929635688e-11, 0.01062621348042403, -0.23583540567076824, -0.999999999939778, 0.012874028121393459, 0.001735704078813835, 0.16858033492039573, 0.012661565738493722, -0.16900798887650267, 0.15872100972907807, 0.002143094419605395, 0.006573191956862265, -0.02966191126501691, -0.02966281268366186, -0.09026103701007708, -0.0266385832700477, 0.004373936173111374, 0.01025063640411833, 0.0165541083489358, 0.008979174956199367, 0.0077810155500982634, 0.011788328665635533, 0.010627663310250926]
[0.00011552050642261308, 0.017264545244129115, 0.008823522356797458, 0.006097499554161431, 0.006084834293626928, 0.0018669284314559165, 0.008781091413010407, -0.1288330644986824, -0.2840745676799741, -0.3135379407048692, -0.3010474447548954, 0.00851279283341778, 0.009375629530634725, -0.9999999994872835, -0.012077466974450267, -0.0053240451635561395, 2.7616204014559945e-10, 0.01901333067292969, 0.019131264482346803, 0.22609528810638999, -0.2545895428848943, -0.2920905238445628, -0.2876292141148814, 0.005134026624478344, 0.016191688450417796, -2.548702264507722e-10, 0.010570397848966044, 0.15773820543925873, 1.999999999422701, 0.006186375291438183, 0.011822322339192582, 0.2400176142827149, 0.28189764493482783, 0.2519894524898765, -0.13819770125339448, 0.012823060553940368, 0.007992806804212903, -0.04408081496037006, -0.036269301297861704, 0.10929256023761755, -0.04173541330457811, 0.015710762216907932, 0.01870247348730125, 0.012557666597165283, 0.00019719392365991537, 0.02066482635954927, 0.0024025072555097643, 0.0009261318410557726]
[0.005920527371385364, 0.013979001570882136, 0.003845931909545549, 0.017201915637917408, 0.005434925949523895, 0.009688462979618598, 0.009610355244859746, 0.2733012931854841, 0.024076496870857042, 0.05285267960844054, 0.0347206662024875, 0.018799928082424106, 0.012677403847523555, 0.9999999958675699, 0.03184550244824552, 0.029625263799821066, -2.222329742780689e-09, 0.01227602393787533, 0.004249169447237408, -0.2957485272312034, 0.14858689484649532, 0.16841143892406762, 0.018063902803827216, 0.012877117237657365, 0.01930306953062621, 2.0626027127312153e-09, 0.012688766709971148, 0.2880294925956542, -0.9999999953654114, 0.01323197468730373, 0.0069230004622876954, -0.3042425141825676, -0.20800372987411864, -0.1920052272066525, 0.27998662541842173, 0.018689883690444258, 0.005279937397003817, -0.08627406715949913, -0.07833581548995434, 0.15868258940272306, -0.07708332987608098, 0.01074419262814211, 0.0015427637459902652, 0.011673595529260153, 0.0007258874986954036, 0.005689780701913239, 0.012347170673477853, 0.0021929924176776056]
[0.0062129586006319055, 0.0025281333921234905, 0.009784754962301663, 0.002046573395685536, 0.02016539836953368, 0.00032560095160344416, 0.008163956716646464, -0.14713528623832992, 0.2703406268409284, 0.24678159557970084, 0.26277748296509784, 0.00017992312060996032, 0.0019156393190514255, 1.0000000270900198, -0.012767001681849756, 0.001858245368281387, 1.453617722027605e-08, 0.004768172496096732, 0.010617469094055365, 0.060754137436316254, 0.12576016477196447, 0.1138178190999184, 0.2771172117840901, 0.016118376026428464, 0.01429421418736916, -1.0000000136047815, 0.012615107927492417, -0.4221247600070056, -1.0000000302085177, 0.004430191724375944, 0.00360060445676545, 0.08241318130300788, -0.058436640299898104, -0.08473068835860056, -0.14945960062126537, 0.003935776451514247, 0.01812102266243395, 0.11905581683787217, 0.12394404225538204, -0.2812803570263409, 0.1346911517023725, 0.007020017984545611, 0.015468928013071141, 0.0016164669837059286, 0.008138834498864413, 0.0043661129854299235, 0.002259510810207146, 0.0032600440648878327]
[0.014074778207606, 0.012650002849486447, 0.012941133494921717, 0.017076637775699507, 0.012366105579299775, 0.002438799705939717, 0.011631700381802423, -0.09218665065291984, -0.17164436849554818, -0.14685996495079948, -0.17767197288569994, 0.01815684434498052, 0.0015231096812253347, -2.0000001374553724, 0.04615795668286124, 0.041235448034472405, -1.0000000734816514, 0.0083767023597354, 0.013137047883015424, -0.023836004706829582, -0.09687358375856514, -0.05079926390452542, -0.17344765294336525, 0.004244398934059794, 0.008802190044020775, 2.0000000695798743, 0.006325413344579552, 0.1333945473763132, 2.000000151939337, 0.007409952601864747, 0.016570464495228022, -0.05880456185229006, 0.016901120344856257, 0.06573949687806122, -0.09051661522547502, 0.0013940765100330839, 0.011095926576117457, -0.032939797931039065, -0.040889793369597395, 0.049308738073272705, -0.04051136828205757, 0.017332351422258186, 0.00011872021058674288, 0.018166023781058555, 0.00623315781043714, 0.0005350016376115008, 0.005672764775980679, 0.0006433838436754163]
[0.019393895803598907, 0.014780174300961338, 0.01378275453987988, 0.007243125329820565, 0.016294222647257817, 0.011883340546715368, 0.01411732593972371, 0.28095187491656104, 0.02583040619633824, 0.05207772643188876, 0.033364051681882965, 0.010115617827259915, 0.010952550842573882, 1.0000005242498018, 0.02300841214630819, 0.035553859580780965, 1.0000002786673, 0.0089466609681119, 0.020563345613907647, -0.2938121683457974, 0.13783031852078922, 0.167689340197394, 0.03675528007485376, 0.008366536963500773, 0.0022139021287050664, -1.0000002677422153, 0.009361172134895743, 0.2846838924424241, -1.0000005725207215, 0.0027656966507227723, 0.004446732611711075, -0.3178624227183987, -0.20193055088194234, -0.18639505264967102, 0.26550128165480746, 0.02033695254612484, 0.013265282702178027, -0.08438172670019964, -0.0781001327012505, 0.16886287560899668, -0.08918700291131512, 0.00172263805960806, 0.0041867543899451395, 0.007828260139862245, 0.015397965934791674, 0.020016797313640686, 0.01298503032757258, 0.003137409030205348]
[0.017356411951885208, 0.01331617350493996, 0.0017228433324412058, 0.010568491146141959, 0.005109843460693271, 0.020074496952476293, 0.017674708634080893, -0.6211555294353558, -0.18978564860311595, -0.09439257929317027, -0.20180350467857602, 0.01340014721743791, 0.013479973851129685, 0.9999985311039444, 0.11063165842541081, 0.11633698681936194, 0.9999992257046322, 0.008824185428941369, 0.009042085493899668, 0.2443871038143021, -0.08224280294704166, 0.02364646639401357, -0.20545665291201912, 0.016604133223564275, 0.015986572685866285, 7.576118683727536e-07, 0.015984142167083295, -0.3213573027705719, 1.5783034955585618e-06, 0.005401928627049993, 0.009186026935438551, 0.1357369123522491, 0.2604092695821299, 0.3594672633177693, -0.6288105299657326, 0.0020407089950080595, 0.00924965032959052, -0.007945856727326157, -0.0014891904170408854, -0.42867641811667617, -0.0006081945283765853, 0.013787802684572359, 0.011468650578974867, 0.007795019638915539, 0.005337927610217612, 0.020316486114674955, 0.01274992976796388, 0.003400377639807691]
