[0.006871971415552833, 0.0013734953244102556, 0.0010815957032389533, 0.014611987879120289, 0.01913882617088455, 0.011132565866731644, 0.010526316812853055, 0.15596083424282364, 0.10400163080415638, 0.07157988172167959, 0.11130957108733612, 0.010957676148672234, 0.008660515492878355, -5.106424068855034e-13, -0.04049986479518668, -0.0358874271957738, -2.960261029174842e-13, 0.01024325278700685, 0.0011063036634006314, 0.06835457238002085, -0.07719871090479624, -0.11360720516551344, 0.1025811860727225, 0.0022044287827766664, 0.010553755581555281, 3.3330218704693e-13, 0.01901182829427307, 0.01445487955408666, 4.2568807977469423e-13, 0.0066474556455059924, 1.5653319612856747e-05, 0.10232958843422287, -0.06777940119921207, -0.10290475961494476, 0.14537281214146178, 0.004272054235476053, 0.0018187285899381178, 0.15380160746435698, 0.14343566358244367, 0.18421147406174343, 0.15706117800702918, 0.019103533782079074, 0.014817767609679853, 0.011514815830561223, 0.0021237562922146666, 0.020408627598924835, 0.018862787370047946, 0.0161416503576591]
[0.011049922786414527, 0.0034797462532039497, 0.011001362757335932, 0.01757769454766977, 0.013116185691893788, 0.01977303648651538, 0.017772477386845637, -0.08917887760094081, -0.1268091924745567, 0.07807641346256339, -0.1289125201823121, 0.012989124025272615, 0.009875096705384423, 1.1698437744524102e-11, 0.20862431654206215, 0.20235382887213138, 6.623215049426439e-12, 0.012818847921653428, 0.010520810965054412, -0.043530365235209006, 0.149265977452188, 0.3336989288529323, -0.12107964853297565, 0.0168336293680208, 0.011765740213146235, -7.614460029615978e-12, 0.0020757011004250495, 0.22660788707299187, -9.85275136913748e-12, 0.013912214861770494, 0.012512550765573298, -0.23269974315578462, 0.04125613264819934, 0.23497397574073708, -0.09506108097366887, 0.0003103671535634178, 0.0029482024987572456, -0.06043267514709454, -0.0692545986084512, -0.04236792850082089, -0.06874978305056216, 0.016785250391928574, 0.000862081510546527, 0.011227696970429567, 0.013265875845858305, 0.01846249705371575, 0.0014243378937318755, 0.009005528548575635]
[0.012838280713244657, 0.017641330686674974, 0.01864653966604828, 0.020755643125611022, 0.006401183143322306, 0.01688716989859675, 0.017031280327073555, 0.16530346281389624, 0.2141112507676021, 0.04622770512520462, 0.21628016491608335, 0.0021289788607243864, 0.01162467541893556, -1.337654774483652e-10, -0.17422096037419238, -0.17720112946284478, -7.421032859182327e-11, 0.009385007264505545, 0.008006075240202267, -0.01902143434001295, 0.08368697182673973, -0.10625953892687326, 0.22169611306403667, 0.011707638187604787, 0.013340506206010279, 8.695094740827402e-11, 0.01673975663321152, -0.2338694655685746, -0.9999999998865607, 0.0029476852290877217, 0.008416838155561936, 0.16769251101766267, 0.01574045607152791, -0.16441153272488598, 0.158953870374156, 0.006555278848704546, 0.018261658896823726, -0.020534425497090864, -0.0285963765059249, -0.090387867593367, -0.03172497414519964, 0.013791227871788317, 0.016449639957066203, 0.0010221515719686218, 0.005345317641566101, 0.003241182623876041, 0.00022507281884434627, 0.01412556690832452]
[0.003376010386942817, 0.006264578279194077, 0.019062781146024745, 0.01324902926843458, 0.01891333336880897, 0.02003736992568054, 0.019621715180169193, -0.12998738103494384, -0.2977802713686925, -0.31447670310938136, -0.2881468052457102, 0.015241687298456236, 0.007500326898889083, -0.9999999988988182, -0.007437874611325451, -0.014726529549858737, 6.033856669989255e-10, 0.019142876298561325, 0.009920297718467348, 0.21980504102767862, -0.2573227610701829, -0.28507764892729276, -0.29971960865928476, 0.01623738067028285, 0.002388732310918601, -7.15729096252762e-10, 0.012402630264860081, 0.1437381931636933, 1.9999999990630088, 0.0015486542779570751, 0.00041219522439593415, 0.24241145445716322, 0.2749910764088639, 0.2627924279011073, -0.12748882025227048, 0.0021568490697026974, 0.000512590359995344, -0.04162283808283699, -0.0362721285995317, 0.11373800791613965, -0.0404599470219023, 0.0011283818805908781, 0.008825586413142184, 0.0012101891256720843, 0.006610462214926158, 0.00046072267527637323, 0.0038121903537467797, 0.004390591222061732]
[0.002451411250435002, 0.004937772646949656, 0.01034324527559904, 0.0010164227787955702, 0.01495435699864175, 0.014426181383671076, 0.0036486709307081123, 0.2859734077684609, 0.024615002670461687, 0.04529253952072683, 0.0271861423288778, 0.0023189214541047437, 0.006127355887348894, 0.9999999923981783, 0.04301273882908097, 0.030722527763416416, -4.136442539433164e-09, 0.002231219095191757, 0.013042251216905132, -0.2924054711478749, 0.14058263010524055, 0.16579992684582323, 0.03691104177305579, 0.018233299721875703, 0.0017639951190479887, 4.94190596430866e-09, 0.016305696929166287, 0.2761166362157941, -0.9999999935186709, 0.013081569376803113, 0.02046442022005466, -0.3217122268768149, -0.19684314468485412, -0.18903915584871753, 0.2736393066554038, 0.0006882483411266316, 0.0032649726249942674, -0.08475865547377293, -0.08342165641478028, 0.1642706507638559, -0.07559008175578175, 0.00820743225593505, 0.0012208831255600707, 0.01604154538141649, 0.0005844573274644433, 0.005087803148256374, 0.005186513626741117, 0.018143141890478918]
[0.010499156673907937, 0.010520113667711195, 0.019029431954012428, 0.00361864191550873, 0.017778209611615442, 0.012658193682500771, 0.0014770672115769305, -0.14470420735978992, 0.26460122387206636, 0.2483727712187096, 0.2676376775544786, 0.004906499273722505, 0.014158009063328534, 1.0000000442421597, -0.002392529909966739, -0.002779238721314796, 2.385195131692613e-08, 0.004619487886409967, 0.004093865775293246, 0.062817500322638, 0.13514931892419693, 0.10028251013581736, 0.2705723609070511, 0.00392923675098876, 0.00743879467503254, -1.0000000287612765, 0.013856263664845644, -0.42642366659054176, -1.0000000378321239, 0.012376181914749517, 0.00228635239968916, 0.0752526668252773, -0.0608311839239152, -0.07723899177503149, -0.14191164136892384, 0.003153029266552231, 0.007270302763664425, 0.12288645161202799, 0.13384133869942674, -0.2869604926136227, 0.12759435150668577, 0.006264222428971816, 0.003854203116443367, 0.010711837597373736, 0.0043189273648923596, 0.0022837073516559594, 0.0015284139855036756, 0.004556075479118904]
[0.012744629752967439, 0.0037880281849082564, 0.010039705507861174, 0.016829004747302166, 0.016362722822684476, 0.002276450250458297, 0.0054532458356563104, -0.0989371715881203, -0.17478534759325556, -0.1365063521590273, -0.17845465550425235, 0.01201726122506567, 0.0029077996402799796, -2.0000002053744974, 0.03758620255493294, 0.03927220310455493, -1.0000001091149988, 0.01631351687357873, 0.015165373652130573, -0.022561821782313703, -0.0967935171621252, -0.04831699861297085, -0.17342812142371686, 0.01788871034021497, 0.0020869541872710847, 2.0000001335348143, 0.011010882267674348, 0.13795985810922695, 2.0000001763450275, 0.015130223631317323, 0.006443787614055223, -0.0578723750874458, 0.023191087226079123, 0.05724315054873684, -0.09277790255569705, 0.012548566146479244, 0.0030215506588147692, -0.028220425699622704, -0.0474936568193844, 0.05375525125205667, -0.042717426939998124, 0.0028633553499823904, 0.0067752189735836715, 0.014814547781286195, 0.0020843555760003845, 0.015223268266808795, 0.0017767428492814208, 0.020668896595064098]
[0.010216439788831015, 0.019235711420929783, 0.002212359332108234, 0.018497034813840862, 0.01979253628853301, 0.019281425329733533, 0.016105704277636444, 0.27036286957370864, 0.031680539549733024, 0.04770407216302809, 0.03736260130644841, 0.001927107008313766, 0.010639107217207277, 1.0000007253752994, 0.03828686187729587, 0.02247290924074717, 1.0000003781576112, 0.0025148288102635175, 0.011793997142089466, -0.3064220925346178, 0.14568071298378213, 0.1676656776791083, 0.02451178355880089, 0.005531884757854137, 0.0016729072576693014, -1.000000472176413, 0.016041276181030437, 0.28157011779483015, -1.0000006259157186, 0.011045692458781923, 0.012795000412958354, -0.30945436933965076, -0.20362356226680534, -0.18050012709180469, 0.2750319876031206, 0.004393455524606506, 0.012107070905752871, -0.08325716149493982, -0.08349146557642055, 0.17303490715718034, -0.07706365031903133, 0.011403730519872021, 0.0035432514223044526, 0.0032059561921495144, 0.0018318088158293018, 0.007311643070084255, 0.007135486627173909, 0.01811226073187654]
[0.018785404664665238, 0.007825986957821567, 0.01726785134136095, 0.013910612289421758, 0.009656280729355003, 0.007052433928956906, 0.015529270529654597, -0.6243864893853626, -0.20091053154874222, -0.09834637472018688, -0.19441707369884337, 0.015277873230417507, 0.00813989840568833, 0.9999981230845103, 0.11715452720687919, 0.10279697703632126, 0.9999990430081845, 0.002622749783610094, 0.004604339726689939, 0.24878915213753933, -0.08423611140153313, 0.028826544757464687, -0.20076237249077072, 0.012841306757464532, 0.01647563345205321, 1.2255724729981306e-06, 0.011488030782491096, -0.3160806411197129, 1.6293283902012888e-06, 0.004424318689174536, 0.0005120858605160544, 0.13557024600221673, 0.25901293414586474, 0.3566280851237253, -0.6257682504914939, 0.009448254549639422, 0.0004568656832291129, 2.3879657450914524e-05, 0.0015444038631388507, -0.433764330930353, -0.007572313047088847, 0.012923002607959885, 0.0024604045701686664, 0.018809249201775274, 0.01321897686973421, 0.02083302803063601, 0.018690881954658716, 0.00543014091478608]
